digraph Tree {
node [shape=box, style="rounded", color="black", fontname="helvetica"] ;
edge [fontname="helvetica"] ;
0 [label="Entropy <= 0.1\nsquared_error = 0.2\nsamples = 699238\nvalue = 0.5"] ;
1 [label="Entropy <= -1.0\nsquared_error = 0.2\nsamples = 320246\nvalue = 0.3"] ;
0 -> 1 [labeldistance=2.5, labelangle=45, headlabel="True"] ;
2 [label="AnswerValue <= 3.5\nsquared_error = 0.2\nsamples = 107498\nvalue = 0.2"] ;
1 -> 2 ;
3 [label="CorrectAnswer <= 3.5\nsquared_error = 0.2\nsamples = 87486\nvalue = 0.2"] ;
2 -> 3 ;
4 [label="Entropy <= -1.4\nsquared_error = 0.1\nsamples = 83428\nvalue = 0.2"] ;
3 -> 4 ;
5 [label="AnswerValue <= 2.5\nsquared_error = 0.1\nsamples = 60066\nvalue = 0.1"] ;
4 -> 5 ;
6 [label="CorrectAnswer <= 2.5\nsquared_error = 0.1\nsamples = 37184\nvalue = 0.2"] ;
5 -> 6 ;
7 [label="Entropy <= -2.5\nsquared_error = 0.1\nsamples = 33621\nvalue = 0.1"] ;
6 -> 7 ;
8 [label="AnswerValue <= 1.5\nsquared_error = 0.0\nsamples = 4527\nvalue = 0.0"] ;
7 -> 8 ;
9 [label="CorrectAnswer <= 1.5\nsquared_error = 0.1\nsamples = 1311\nvalue = 0.1"] ;
8 -> 9 ;
10 [label="squared_error = 0.0\nsamples = 1203\nvalue = 0.0"] ;
9 -> 10 ;
11 [label="squared_error = 0.0\nsamples = 108\nvalue = 1.0"] ;
9 -> 11 ;
12 [label="CorrectAnswer <= 1.5\nsquared_error = 0.0\nsamples = 3216\nvalue = 0.0"] ;
8 -> 12 ;
13 [label="squared_error = 0.0\nsamples = 88\nvalue = 1.0"] ;
12 -> 13 ;
14 [label="squared_error = 0.0\nsamples = 3128\nvalue = 0.0"] ;
12 -> 14 ;
15 [label="Confidence_y <= 62.5\nsquared_error = 0.1\nsamples = 29094\nvalue = 0.1"] ;
7 -> 15 ;
16 [label="Entropy <= -1.4\nsquared_error = 0.1\nsamples = 6949\nvalue = 0.1"] ;
15 -> 16 ;
17 [label="Entropy <= -1.5\nsquared_error = 0.1\nsamples = 6395\nvalue = 0.1"] ;
16 -> 17 ;
18 [label="Entropy <= -2.3\nsquared_error = 0.1\nsamples = 6061\nvalue = 0.1"] ;
17 -> 18 ;
19 [label="AnswerValue <= 1.5\nsquared_error = 0.1\nsamples = 1263\nvalue = 0.1"] ;
18 -> 19 ;
20 [label="CorrectAnswer <= 1.5\nsquared_error = 0.0\nsamples = 810\nvalue = 0.0"] ;
19 -> 20 ;
21 [label="squared_error = 0.0\nsamples = 774\nvalue = 0.0"] ;
20 -> 21 ;
22 [label="squared_error = 0.0\nsamples = 36\nvalue = 1.0"] ;
20 -> 22 ;
23 [label="Entropy <= -2.5\nsquared_error = 0.2\nsamples = 453\nvalue = 0.3"] ;
19 -> 23 ;
24 [label="squared_error = 0.0\nsamples = 327\nvalue = 0.0"] ;
23 -> 24 ;
25 [label="squared_error = 0.0\nsamples = 126\nvalue = 1.0"] ;
23 -> 25 ;
26 [label="AnswerValue <= 1.5\nsquared_error = 0.1\nsamples = 4798\nvalue = 0.1"] ;
18 -> 26 ;
27 [label="CorrectAnswer <= 1.5\nsquared_error = 0.1\nsamples = 2063\nvalue = 0.1"] ;
26 -> 27 ;
28 [label="squared_error = 0.0\nsamples = 1800\nvalue = 0.0"] ;
27 -> 28 ;
29 [label="squared_error = 0.0\nsamples = 263\nvalue = 1.0"] ;
27 -> 29 ;
30 [label="CorrectAnswer <= 1.5\nsquared_error = 0.1\nsamples = 2735\nvalue = 0.1"] ;
26 -> 30 ;
31 [label="squared_error = 0.0\nsamples = 219\nvalue = 1.0"] ;
30 -> 31 ;
32 [label="squared_error = 0.0\nsamples = 2516\nvalue = 0.0"] ;
30 -> 32 ;
33 [label="AnswerValue <= 1.5\nsquared_error = 0.1\nsamples = 334\nvalue = 0.2"] ;
17 -> 33 ;
34 [label="Entropy <= -1.5\nsquared_error = 0.1\nsamples = 216\nvalue = 0.1"] ;
33 -> 34 ;
35 [label="squared_error = 0.0\nsamples = 199\nvalue = 0.0"] ;
34 -> 35 ;
36 [label="squared_error = 0.0\nsamples = 17\nvalue = 1.0"] ;
34 -> 36 ;
37 [label="Entropy <= -1.5\nsquared_error = 0.2\nsamples = 118\nvalue = 0.3"] ;
33 -> 37 ;
38 [label="squared_error = 0.0\nsamples = 41\nvalue = 1.0"] ;
37 -> 38 ;
39 [label="squared_error = 0.0\nsamples = 77\nvalue = 0.0"] ;
37 -> 39 ;
40 [label="AnswerValue <= 1.5\nsquared_error = 0.1\nsamples = 554\nvalue = 0.1"] ;
16 -> 40 ;
41 [label="CorrectAnswer <= 1.5\nsquared_error = 0.1\nsamples = 243\nvalue = 0.1"] ;
40 -> 41 ;
42 [label="squared_error = 0.0\nsamples = 222\nvalue = 0.0"] ;
41 -> 42 ;
43 [label="squared_error = 0.0\nsamples = 21\nvalue = 1.0"] ;
41 -> 43 ;
44 [label="CorrectAnswer <= 1.5\nsquared_error = 0.0\nsamples = 311\nvalue = 0.0"] ;
40 -> 44 ;
45 [label="squared_error = 0.0\nsamples = 10\nvalue = 1.0"] ;
44 -> 45 ;
46 [label="squared_error = 0.0\nsamples = 301\nvalue = 0.0"] ;
44 -> 46 ;
47 [label="Entropy <= -2.0\nsquared_error = 0.1\nsamples = 22145\nvalue = 0.1"] ;
15 -> 47 ;
48 [label="Entropy <= -2.3\nsquared_error = 0.1\nsamples = 9408\nvalue = 0.1"] ;
47 -> 48 ;
49 [label="AnswerValue <= 1.5\nsquared_error = 0.1\nsamples = 4054\nvalue = 0.1"] ;
48 -> 49 ;
50 [label="Entropy <= -2.5\nsquared_error = 0.0\nsamples = 2616\nvalue = 0.0"] ;
49 -> 50 ;
51 [label="squared_error = 0.0\nsamples = 100\nvalue = 1.0"] ;
50 -> 51 ;
52 [label="squared_error = 0.0\nsamples = 2516\nvalue = 0.0"] ;
50 -> 52 ;
53 [label="CorrectAnswer <= 1.5\nsquared_error = 0.2\nsamples = 1438\nvalue = 0.2"] ;
49 -> 53 ;
54 [label="squared_error = 0.0\nsamples = 274\nvalue = 1.0"] ;
53 -> 54 ;
55 [label="squared_error = 0.0\nsamples = 1164\nvalue = 0.0"] ;
53 -> 55 ;
56 [label="AnswerValue <= 1.5\nsquared_error = 0.1\nsamples = 5354\nvalue = 0.1"] ;
48 -> 56 ;
57 [label="CorrectAnswer <= 1.5\nsquared_error = 0.2\nsamples = 1345\nvalue = 0.2"] ;
56 -> 57 ;
58 [label="squared_error = 0.0\nsamples = 1086\nvalue = 0.0"] ;
57 -> 58 ;
59 [label="squared_error = 0.0\nsamples = 259\nvalue = 1.0"] ;
57 -> 59 ;
60 [label="CorrectAnswer <= 1.5\nsquared_error = 0.0\nsamples = 4009\nvalue = 0.0"] ;
56 -> 60 ;
61 [label="squared_error = 0.0\nsamples = 53\nvalue = 1.0"] ;
60 -> 61 ;
62 [label="squared_error = 0.0\nsamples = 3956\nvalue = 0.0"] ;
60 -> 62 ;
63 [label="Entropy <= -1.8\nsquared_error = 0.1\nsamples = 12737\nvalue = 0.1"] ;
47 -> 63 ;
64 [label="AnswerValue <= 1.5\nsquared_error = 0.1\nsamples = 2971\nvalue = 0.1"] ;
63 -> 64 ;
65 [label="CorrectAnswer <= 1.5\nsquared_error = 0.1\nsamples = 1677\nvalue = 0.1"] ;
64 -> 65 ;
66 [label="squared_error = 0.0\nsamples = 1576\nvalue = 0.0"] ;
65 -> 66 ;
67 [label="squared_error = 0.0\nsamples = 101\nvalue = 1.0"] ;
65 -> 67 ;
68 [label="CorrectAnswer <= 1.5\nsquared_error = 0.2\nsamples = 1294\nvalue = 0.2"] ;
64 -> 68 ;
69 [label="squared_error = 0.0\nsamples = 252\nvalue = 1.0"] ;
68 -> 69 ;
70 [label="squared_error = 0.0\nsamples = 1042\nvalue = 0.0"] ;
68 -> 70 ;
71 [label="Entropy <= -1.5\nsquared_error = 0.1\nsamples = 9766\nvalue = 0.1"] ;
63 -> 71 ;
72 [label="AnswerValue <= 1.5\nsquared_error = 0.1\nsamples = 5690\nvalue = 0.1"] ;
71 -> 72 ;
73 [label="CorrectAnswer <= 1.5\nsquared_error = 0.0\nsamples = 3315\nvalue = 0.1"] ;
72 -> 73 ;
74 [label="squared_error = 0.0\nsamples = 3131\nvalue = 0.0"] ;
73 -> 74 ;
75 [label="squared_error = 0.0\nsamples = 184\nvalue = 1.0"] ;
73 -> 75 ;
76 [label="CorrectAnswer <= 1.5\nsquared_error = 0.1\nsamples = 2375\nvalue = 0.1"] ;
72 -> 76 ;
77 [label="squared_error = 0.0\nsamples = 234\nvalue = 1.0"] ;
76 -> 77 ;
78 [label="squared_error = 0.0\nsamples = 2141\nvalue = 0.0"] ;
76 -> 78 ;
79 [label="AnswerValue <= 1.5\nsquared_error = 0.1\nsamples = 4076\nvalue = 0.1"] ;
71 -> 79 ;
80 [label="CorrectAnswer <= 1.5\nsquared_error = 0.1\nsamples = 1796\nvalue = 0.1"] ;
79 -> 80 ;
81 [label="squared_error = 0.0\nsamples = 1542\nvalue = 0.0"] ;
80 -> 81 ;
82 [label="squared_error = 0.0\nsamples = 254\nvalue = 1.0"] ;
80 -> 82 ;
83 [label="CorrectAnswer <= 1.5\nsquared_error = 0.1\nsamples = 2280\nvalue = 0.1"] ;
79 -> 83 ;
84 [label="squared_error = 0.0\nsamples = 136\nvalue = 1.0"] ;
83 -> 84 ;
85 [label="squared_error = 0.0\nsamples = 2144\nvalue = 0.0"] ;
83 -> 85 ;
86 [label="squared_error = 0.0\nsamples = 3563\nvalue = 1.0"] ;
6 -> 86 ;
87 [label="CorrectAnswer <= 2.5\nsquared_error = 0.1\nsamples = 22882\nvalue = 0.1"] ;
5 -> 87 ;
88 [label="squared_error = 0.0\nsamples = 2583\nvalue = 1.0"] ;
87 -> 88 ;
89 [label="squared_error = 0.0\nsamples = 20299\nvalue = 0.0"] ;
87 -> 89 ;
90 [label="AnswerValue <= 1.5\nsquared_error = 0.2\nsamples = 23362\nvalue = 0.2"] ;
4 -> 90 ;
91 [label="CorrectAnswer <= 1.5\nsquared_error = 0.1\nsamples = 7978\nvalue = 0.2"] ;
90 -> 91 ;
92 [label="squared_error = 0.0\nsamples = 6565\nvalue = 0.0"] ;
91 -> 92 ;
93 [label="squared_error = 0.0\nsamples = 1413\nvalue = 1.0"] ;
91 -> 93 ;
94 [label="CorrectAnswer <= 1.5\nsquared_error = 0.2\nsamples = 15384\nvalue = 0.2"] ;
90 -> 94 ;
95 [label="squared_error = 0.0\nsamples = 1873\nvalue = 1.0"] ;
94 -> 95 ;
96 [label="CorrectAnswer <= 2.5\nsquared_error = 0.1\nsamples = 13511\nvalue = 0.1"] ;
94 -> 96 ;
97 [label="AnswerValue <= 2.5\nsquared_error = 0.1\nsamples = 6834\nvalue = 0.1"] ;
96 -> 97 ;
98 [label="squared_error = 0.0\nsamples = 6078\nvalue = 0.0"] ;
97 -> 98 ;
99 [label="squared_error = 0.0\nsamples = 756\nvalue = 1.0"] ;
97 -> 99 ;
100 [label="AnswerValue <= 2.5\nsquared_error = 0.1\nsamples = 6677\nvalue = 0.2"] ;
96 -> 100 ;
101 [label="squared_error = 0.0\nsamples = 1115\nvalue = 1.0"] ;
100 -> 101 ;
102 [label="squared_error = 0.0\nsamples = 5562\nvalue = 0.0"] ;
100 -> 102 ;
103 [label="squared_error = 0.0\nsamples = 4058\nvalue = 1.0"] ;
3 -> 103 ;
104 [label="CorrectAnswer <= 3.5\nsquared_error = 0.2\nsamples = 20012\nvalue = 0.3"] ;
2 -> 104 ;
105 [label="squared_error = 0.0\nsamples = 6511\nvalue = 1.0"] ;
104 -> 105 ;
106 [label="squared_error = 0.0\nsamples = 13501\nvalue = 0.0"] ;
104 -> 106 ;
107 [label="Entropy <= -0.4\nsquared_error = 0.2\nsamples = 212748\nvalue = 0.4"] ;
1 -> 107 ;
108 [label="AnswerValue <= 1.5\nsquared_error = 0.2\nsamples = 93414\nvalue = 0.3"] ;
107 -> 108 ;
109 [label="CorrectAnswer <= 1.5\nsquared_error = 0.2\nsamples = 16444\nvalue = 0.4"] ;
108 -> 109 ;
110 [label="squared_error = 0.0\nsamples = 9221\nvalue = 0.0"] ;
109 -> 110 ;
111 [label="squared_error = 0.0\nsamples = 7223\nvalue = 1.0"] ;
109 -> 111 ;
112 [label="CorrectAnswer <= 1.5\nsquared_error = 0.2\nsamples = 76970\nvalue = 0.3"] ;
108 -> 112 ;
113 [label="squared_error = 0.0\nsamples = 4779\nvalue = 1.0"] ;
112 -> 113 ;
114 [label="Confidence <= -0.4\nsquared_error = 0.2\nsamples = 72191\nvalue = 0.3"] ;
112 -> 114 ;
115 [label="AnswerValue <= 3.5\nsquared_error = 0.2\nsamples = 19477\nvalue = 0.3"] ;
114 -> 115 ;
116 [label="CorrectAnswer <= 3.5\nsquared_error = 0.2\nsamples = 14438\nvalue = 0.3"] ;
115 -> 116 ;
117 [label="AnswerValue <= 2.5\nsquared_error = 0.2\nsamples = 12907\nvalue = 0.2"] ;
116 -> 117 ;
118 [label="CorrectAnswer <= 2.5\nsquared_error = 0.2\nsamples = 6047\nvalue = 0.2"] ;
117 -> 118 ;
119 [label="squared_error = 0.0\nsamples = 4648\nvalue = 0.0"] ;
118 -> 119 ;
120 [label="squared_error = 0.0\nsamples = 1399\nvalue = 1.0"] ;
118 -> 120 ;
121 [label="CorrectAnswer <= 2.5\nsquared_error = 0.2\nsamples = 6860\nvalue = 0.2"] ;
117 -> 121 ;
122 [label="squared_error = 0.0\nsamples = 1345\nvalue = 1.0"] ;
121 -> 122 ;
123 [label="squared_error = 0.0\nsamples = 5515\nvalue = 0.0"] ;
121 -> 123 ;
124 [label="squared_error = 0.0\nsamples = 1531\nvalue = 1.0"] ;
116 -> 124 ;
125 [label="CorrectAnswer <= 3.5\nsquared_error = 0.2\nsamples = 5039\nvalue = 0.4"] ;
115 -> 125 ;
126 [label="squared_error = 0.0\nsamples = 1846\nvalue = 1.0"] ;
125 -> 126 ;
127 [label="squared_error = 0.0\nsamples = 3193\nvalue = 0.0"] ;
125 -> 127 ;
128 [label="AnswerValue <= 3.5\nsquared_error = 0.2\nsamples = 52714\nvalue = 0.3"] ;
114 -> 128 ;
129 [label="CorrectAnswer <= 3.5\nsquared_error = 0.2\nsamples = 38849\nvalue = 0.2"] ;
128 -> 129 ;
130 [label="Entropy <= -0.6\nsquared_error = 0.1\nsamples = 35382\nvalue = 0.2"] ;
129 -> 130 ;
131 [label="AnswerValue <= 2.5\nsquared_error = 0.1\nsamples = 23807\nvalue = 0.2"] ;
130 -> 131 ;
132 [label="CorrectAnswer <= 2.5\nsquared_error = 0.2\nsamples = 10396\nvalue = 0.2"] ;
131 -> 132 ;
133 [label="squared_error = 0.0\nsamples = 8308\nvalue = 0.0"] ;
132 -> 133 ;
134 [label="squared_error = 0.0\nsamples = 2088\nvalue = 1.0"] ;
132 -> 134 ;
135 [label="CorrectAnswer <= 2.5\nsquared_error = 0.1\nsamples = 13411\nvalue = 0.1"] ;
131 -> 135 ;
136 [label="squared_error = 0.0\nsamples = 1441\nvalue = 1.0"] ;
135 -> 136 ;
137 [label="squared_error = 0.0\nsamples = 11970\nvalue = 0.0"] ;
135 -> 137 ;
138 [label="AnswerValue <= 2.5\nsquared_error = 0.2\nsamples = 11575\nvalue = 0.2"] ;
130 -> 138 ;
139 [label="CorrectAnswer <= 2.5\nsquared_error = 0.1\nsamples = 6116\nvalue = 0.1"] ;
138 -> 139 ;
140 [label="squared_error = 0.0\nsamples = 5453\nvalue = 0.0"] ;
139 -> 140 ;
141 [label="squared_error = 0.0\nsamples = 663\nvalue = 1.0"] ;
139 -> 141 ;
142 [label="CorrectAnswer <= 2.5\nsquared_error = 0.2\nsamples = 5459\nvalue = 0.3"] ;
138 -> 142 ;
143 [label="squared_error = 0.0\nsamples = 1637\nvalue = 1.0"] ;
142 -> 143 ;
144 [label="squared_error = 0.0\nsamples = 3822\nvalue = 0.0"] ;
142 -> 144 ;
145 [label="squared_error = 0.0\nsamples = 3467\nvalue = 1.0"] ;
129 -> 145 ;
146 [label="CorrectAnswer <= 3.5\nsquared_error = 0.2\nsamples = 13865\nvalue = 0.3"] ;
128 -> 146 ;
147 [label="squared_error = 0.0\nsamples = 4115\nvalue = 1.0"] ;
146 -> 147 ;
148 [label="squared_error = 0.0\nsamples = 9750\nvalue = 0.0"] ;
146 -> 148 ;
149 [label="AnswerValue <= 1.5\nsquared_error = 0.2\nsamples = 119334\nvalue = 0.4"] ;
107 -> 149 ;
150 [label="CorrectAnswer <= 1.5\nsquared_error = 0.2\nsamples = 35643\nvalue = 0.3"] ;
149 -> 150 ;
151 [label="squared_error = 0.0\nsamples = 26223\nvalue = 0.0"] ;
150 -> 151 ;
152 [label="squared_error = 0.0\nsamples = 9420\nvalue = 1.0"] ;
150 -> 152 ;
153 [label="CorrectAnswer <= 1.5\nsquared_error = 0.2\nsamples = 83691\nvalue = 0.5"] ;
149 -> 153 ;
154 [label="squared_error = 0.0\nsamples = 17949\nvalue = 1.0"] ;
153 -> 154 ;
155 [label="AnswerValue <= 2.5\nsquared_error = 0.2\nsamples = 65742\nvalue = 0.3"] ;
153 -> 155 ;
156 [label="CorrectAnswer <= 2.5\nsquared_error = 0.2\nsamples = 23811\nvalue = 0.3"] ;
155 -> 156 ;
157 [label="squared_error = 0.0\nsamples = 17466\nvalue = 0.0"] ;
156 -> 157 ;
158 [label="squared_error = 0.0\nsamples = 6345\nvalue = 1.0"] ;
156 -> 158 ;
159 [label="CorrectAnswer <= 2.5\nsquared_error = 0.2\nsamples = 41931\nvalue = 0.4"] ;
155 -> 159 ;
160 [label="squared_error = 0.0\nsamples = 8788\nvalue = 1.0"] ;
159 -> 160 ;
161 [label="CorrectAnswer <= 3.5\nsquared_error = 0.2\nsamples = 33143\nvalue = 0.2"] ;
159 -> 161 ;
162 [label="AnswerValue <= 3.5\nsquared_error = 0.1\nsamples = 17444\nvalue = 0.2"] ;
161 -> 162 ;
163 [label="squared_error = 0.0\nsamples = 14522\nvalue = 0.0"] ;
162 -> 163 ;
164 [label="squared_error = 0.0\nsamples = 2922\nvalue = 1.0"] ;
162 -> 164 ;
165 [label="AnswerValue <= 3.5\nsquared_error = 0.2\nsamples = 15699\nvalue = 0.2"] ;
161 -> 165 ;
166 [label="squared_error = 0.0\nsamples = 3270\nvalue = 1.0"] ;
165 -> 166 ;
167 [label="squared_error = 0.0\nsamples = 12429\nvalue = 0.0"] ;
165 -> 167 ;
168 [label="Entropy <= 0.7\nsquared_error = 0.2\nsamples = 378992\nvalue = 0.6"] ;
0 -> 168 [labeldistance=2.5, labelangle=-45, headlabel="False"] ;
169 [label="AnswerValue <= 2.5\nsquared_error = 0.2\nsamples = 163982\nvalue = 0.5"] ;
168 -> 169 ;
170 [label="CorrectAnswer <= 2.5\nsquared_error = 0.2\nsamples = 89412\nvalue = 0.5"] ;
169 -> 170 ;
171 [label="CorrectAnswer <= 1.5\nsquared_error = 0.2\nsamples = 65106\nvalue = 0.3"] ;
170 -> 171 ;
172 [label="AnswerValue <= 1.5\nsquared_error = 0.2\nsamples = 32429\nvalue = 0.3"] ;
171 -> 172 ;
173 [label="squared_error = 0.0\nsamples = 22353\nvalue = 0.0"] ;
172 -> 173 ;
174 [label="squared_error = 0.0\nsamples = 10076\nvalue = 1.0"] ;
172 -> 174 ;
175 [label="AnswerValue <= 1.5\nsquared_error = 0.2\nsamples = 32677\nvalue = 0.2"] ;
171 -> 175 ;
176 [label="squared_error = 0.0\nsamples = 7277\nvalue = 1.0"] ;
175 -> 176 ;
177 [label="squared_error = 0.0\nsamples = 25400\nvalue = 0.0"] ;
175 -> 177 ;
178 [label="squared_error = 0.0\nsamples = 24306\nvalue = 1.0"] ;
170 -> 178 ;
179 [label="CorrectAnswer <= 2.5\nsquared_error = 0.2\nsamples = 74570\nvalue = 0.6"] ;
169 -> 179 ;
180 [label="squared_error = 0.0\nsamples = 31188\nvalue = 1.0"] ;
179 -> 180 ;
181 [label="AnswerValue <= 3.5\nsquared_error = 0.2\nsamples = 43382\nvalue = 0.2"] ;
179 -> 181 ;
182 [label="CorrectAnswer <= 3.5\nsquared_error = 0.2\nsamples = 23974\nvalue = 0.2"] ;
181 -> 182 ;
183 [label="squared_error = 0.0\nsamples = 18849\nvalue = 0.0"] ;
182 -> 183 ;
184 [label="squared_error = 0.0\nsamples = 5125\nvalue = 1.0"] ;
182 -> 184 ;
185 [label="CorrectAnswer <= 3.5\nsquared_error = 0.2\nsamples = 19408\nvalue = 0.3"] ;
181 -> 185 ;
186 [label="squared_error = 0.0\nsamples = 5370\nvalue = 1.0"] ;
185 -> 186 ;
187 [label="squared_error = 0.0\nsamples = 14038\nvalue = 0.0"] ;
185 -> 187 ;
188 [label="Entropy <= 1.2\nsquared_error = 0.2\nsamples = 215010\nvalue = 0.6"] ;
168 -> 188 ;
189 [label="AnswerValue <= 2.5\nsquared_error = 0.2\nsamples = 164673\nvalue = 0.6"] ;
188 -> 189 ;
190 [label="CorrectAnswer <= 2.5\nsquared_error = 0.2\nsamples = 83581\nvalue = 0.6"] ;
189 -> 190 ;
191 [label="Entropy <= 1.0\nsquared_error = 0.2\nsamples = 45625\nvalue = 0.3"] ;
190 -> 191 ;
192 [label="AnswerValue <= 1.5\nsquared_error = 0.2\nsamples = 30657\nvalue = 0.3"] ;
191 -> 192 ;
193 [label="CorrectAnswer <= 1.5\nsquared_error = 0.2\nsamples = 13542\nvalue = 0.4"] ;
192 -> 193 ;
194 [label="squared_error = 0.0\nsamples = 7451\nvalue = 0.0"] ;
193 -> 194 ;
195 [label="squared_error = 0.0\nsamples = 6091\nvalue = 1.0"] ;
193 -> 195 ;
196 [label="CorrectAnswer <= 1.5\nsquared_error = 0.2\nsamples = 17115\nvalue = 0.2"] ;
192 -> 196 ;
197 [label="squared_error = 0.0\nsamples = 3840\nvalue = 1.0"] ;
196 -> 197 ;
198 [label="squared_error = 0.0\nsamples = 13275\nvalue = 0.0"] ;
196 -> 198 ;
199 [label="AnswerValue <= 1.5\nsquared_error = 0.2\nsamples = 14968\nvalue = 0.4"] ;
191 -> 199 ;
200 [label="CorrectAnswer <= 1.5\nsquared_error = 0.1\nsamples = 8330\nvalue = 0.2"] ;
199 -> 200 ;
201 [label="squared_error = 0.0\nsamples = 6958\nvalue = 0.0"] ;
200 -> 201 ;
202 [label="squared_error = 0.0\nsamples = 1372\nvalue = 1.0"] ;
200 -> 202 ;
203 [label="CorrectAnswer <= 1.5\nsquared_error = 0.2\nsamples = 6638\nvalue = 0.7"] ;
199 -> 203 ;
204 [label="squared_error = 0.0\nsamples = 4361\nvalue = 1.0"] ;
203 -> 204 ;
205 [label="squared_error = 0.0\nsamples = 2277\nvalue = 0.0"] ;
203 -> 205 ;
206 [label="squared_error = 0.0\nsamples = 37956\nvalue = 1.0"] ;
190 -> 206 ;
207 [label="CorrectAnswer <= 2.5\nsquared_error = 0.2\nsamples = 81092\nvalue = 0.6"] ;
189 -> 207 ;
208 [label="squared_error = 0.0\nsamples = 31182\nvalue = 1.0"] ;
207 -> 208 ;
209 [label="AnswerValue <= 3.5\nsquared_error = 0.2\nsamples = 49910\nvalue = 0.3"] ;
207 -> 209 ;
210 [label="CorrectAnswer <= 3.5\nsquared_error = 0.2\nsamples = 29089\nvalue = 0.2"] ;
209 -> 210 ;
211 [label="squared_error = 0.0\nsamples = 21911\nvalue = 0.0"] ;
210 -> 211 ;
212 [label="squared_error = 0.0\nsamples = 7178\nvalue = 1.0"] ;
210 -> 212 ;
213 [label="CorrectAnswer <= 3.5\nsquared_error = 0.2\nsamples = 20821\nvalue = 0.4"] ;
209 -> 213 ;
214 [label="squared_error = 0.0\nsamples = 8599\nvalue = 1.0"] ;
213 -> 214 ;
215 [label="squared_error = 0.0\nsamples = 12222\nvalue = 0.0"] ;
213 -> 215 ;
216 [label="Entropy <= 1.2\nsquared_error = 0.2\nsamples = 50337\nvalue = 0.7"] ;
188 -> 216 ;
217 [label="AnswerValue <= 2.5\nsquared_error = 0.2\nsamples = 17210\nvalue = 0.7"] ;
216 -> 217 ;
218 [label="CorrectAnswer <= 2.5\nsquared_error = 0.2\nsamples = 9346\nvalue = 0.6"] ;
217 -> 218 ;
219 [label="AnswerValue <= 1.5\nsquared_error = 0.2\nsamples = 6643\nvalue = 0.4"] ;
218 -> 219 ;
220 [label="CorrectAnswer <= 1.5\nsquared_error = 0.2\nsamples = 3271\nvalue = 0.3"] ;
219 -> 220 ;
221 [label="squared_error = 0.0\nsamples = 2225\nvalue = 0.0"] ;
220 -> 221 ;
222 [label="squared_error = 0.0\nsamples = 1046\nvalue = 1.0"] ;
220 -> 222 ;
223 [label="CorrectAnswer <= 1.5\nsquared_error = 0.2\nsamples = 3372\nvalue = 0.5"] ;
219 -> 223 ;
224 [label="squared_error = 0.0\nsamples = 1526\nvalue = 1.0"] ;
223 -> 224 ;
225 [label="squared_error = 0.0\nsamples = 1846\nvalue = 0.0"] ;
223 -> 225 ;
226 [label="squared_error = 0.0\nsamples = 2703\nvalue = 1.0"] ;
218 -> 226 ;
227 [label="CorrectAnswer <= 2.5\nsquared_error = 0.2\nsamples = 7864\nvalue = 0.8"] ;
217 -> 227 ;
228 [label="squared_error = 0.0\nsamples = 5131\nvalue = 1.0"] ;
227 -> 228 ;
229 [label="AnswerValue <= 3.5\nsquared_error = 0.2\nsamples = 2733\nvalue = 0.4"] ;
227 -> 229 ;
230 [label="CorrectAnswer <= 3.5\nsquared_error = 0.2\nsamples = 1199\nvalue = 0.5"] ;
229 -> 230 ;
231 [label="squared_error = 0.0\nsamples = 584\nvalue = 0.0"] ;
230 -> 231 ;
232 [label="squared_error = 0.0\nsamples = 615\nvalue = 1.0"] ;
230 -> 232 ;
233 [label="CorrectAnswer <= 3.5\nsquared_error = 0.2\nsamples = 1534\nvalue = 0.2"] ;
229 -> 233 ;
234 [label="squared_error = 0.0\nsamples = 339\nvalue = 1.0"] ;
233 -> 234 ;
235 [label="squared_error = 0.0\nsamples = 1195\nvalue = 0.0"] ;
233 -> 235 ;
236 [label="AnswerValue <= 2.5\nsquared_error = 0.2\nsamples = 33127\nvalue = 0.7"] ;
216 -> 236 ;
237 [label="CorrectAnswer <= 2.5\nsquared_error = 0.2\nsamples = 16636\nvalue = 0.7"] ;
236 -> 237 ;
238 [label="AnswerValue <= 1.5\nsquared_error = 0.2\nsamples = 8381\nvalue = 0.5"] ;
237 -> 238 ;
239 [label="CorrectAnswer <= 1.5\nsquared_error = 0.2\nsamples = 4378\nvalue = 0.5"] ;
238 -> 239 ;
240 [label="squared_error = 0.0\nsamples = 2262\nvalue = 0.0"] ;
239 -> 240 ;
241 [label="squared_error = 0.0\nsamples = 2116\nvalue = 1.0"] ;
239 -> 241 ;
242 [label="CorrectAnswer <= 1.5\nsquared_error = 0.2\nsamples = 4003\nvalue = 0.4"] ;
238 -> 242 ;
243 [label="squared_error = 0.0\nsamples = 1719\nvalue = 1.0"] ;
242 -> 243 ;
244 [label="squared_error = 0.0\nsamples = 2284\nvalue = 0.0"] ;
242 -> 244 ;
245 [label="squared_error = 0.0\nsamples = 8255\nvalue = 1.0"] ;
237 -> 245 ;
246 [label="CorrectAnswer <= 2.5\nsquared_error = 0.2\nsamples = 16491\nvalue = 0.7"] ;
236 -> 246 ;
247 [label="squared_error = 0.0\nsamples = 7089\nvalue = 1.0"] ;
246 -> 247 ;
248 [label="AnswerValue <= 3.5\nsquared_error = 0.2\nsamples = 9402\nvalue = 0.4"] ;
246 -> 248 ;
249 [label="CorrectAnswer <= 3.5\nsquared_error = 0.2\nsamples = 5252\nvalue = 0.3"] ;
248 -> 249 ;
250 [label="squared_error = 0.0\nsamples = 3492\nvalue = 0.0"] ;
249 -> 250 ;
251 [label="squared_error = 0.0\nsamples = 1760\nvalue = 1.0"] ;
249 -> 251 ;
252 [label="CorrectAnswer <= 3.5\nsquared_error = 0.2\nsamples = 4150\nvalue = 0.5"] ;
248 -> 252 ;
253 [label="squared_error = 0.0\nsamples = 2202\nvalue = 1.0"] ;
252 -> 253 ;
254 [label="squared_error = 0.0\nsamples = 1948\nvalue = 0.0"] ;
252 -> 254 ;
}